[[-0.00441201  0.00073037 -0.00849915 ...  0.00513948  0.00073571
   0.01153274]
 [-0.00644415  0.00843535 -0.00936607 ...  0.01256175  0.00554399
   0.00802539]
 [ 0.0013864   0.00072434 -0.00870955 ... -0.00111504  0.01568481
   0.00839767]
 ...
 [ 0.00119541  0.00893413  0.00417848 ...  0.01207706 -0.00919623
   0.0104434 ]
 [-0.01193229 -0.00228554  0.00694605 ... -0.00522705  0.00920361
   0.00851923]
 [ 0.00076473 -0.00255804 -0.00243183 ... -0.00409281 -0.00477894
   0.00251689]]
[[ 2.17632831  2.5049161  -3.20488138  1.79099715  0.69893386 -2.57631386
   0.84348826  0.35728746  0.25974012 -0.7325131  -0.6731298   1.29867196
  -1.13924888 -2.87198064  0.47880582 -0.01950452 -0.91005566 -1.03736045
   1.52552187  0.16298817 -2.86448343 -1.00495973 -0.24270063 -0.81913545
   2.52236289 -2.10775029 -0.11937143 -1.81512988 -2.37593178 -0.20121871]
 [-0.03747266 -1.73461036 -0.82175805  2.48744723  0.46484738  0.77802817
   1.42040349 -3.40647436  2.02390731 -2.48091724 -1.45695367  0.29857876
   2.48360117  0.02764026 -0.27946819 -3.17802032  1.61938936  1.50963004
  -1.28812886  1.47311934  1.18641761  0.2070566  -2.81938525 -2.77206666
  -1.31210985  0.52244673 -0.27137939 -2.27556471  2.61057978 -0.83895854]
 [ 1.16183228  0.14276332  3.77675525  1.04928968 -0.54353499 -0.41662572
  -1.97283785  0.41760355 -2.80226299  0.64330067  0.38427679  3.37690003
  -2.05532052 -3.05967371  0.68436841 -0.19389979  1.08640292  0.90886915
   1.9397052  -4.13140783 -0.6375535   0.24084808  0.33896775  0.22867671
  -1.72594557  2.94997946 -3.9015424  -2.38082659  1.73176361 -2.40981669]
 [-2.54292727 -0.62559986 -1.19875511 -1.04346878 -1.95430411  1.74434339
  -0.63462307 -2.91364858  0.77526886 -2.09357145 -3.22936077 -1.7827542
  -3.69466763 -0.83472214  0.83024733  3.06666643  2.62445189 -1.79604767
   3.34072453  1.12196791  1.36001138 -0.21700329 -1.44866869  3.14539922
  -1.55147809  1.74684966  0.13582603 -1.53629499 -4.04035166 -1.77377126]
 [-1.72357743  0.78612411 -1.93140211 -0.31347294 -1.95244753 -0.4717611
   1.86470454 -0.47104108 -3.47972557  3.23613696  0.29724061 -1.65081728
  -0.43656984 -1.2744782  -3.11421577 -1.82295977  1.33612927  2.52064276
   1.48919284 -1.10002918  0.46612206  3.22287259 -4.31107736 -1.31366255
   2.19570599 -2.02991458 -1.50075942  0.72402942 -2.22647754  2.35506473]
 [-3.96586726 -1.81026848  1.77251184 -0.02255666  2.7355073  -1.20896272
   1.40413577  2.48181364  1.07846894 -1.6899249  -2.19271553 -0.16690017
   0.71658874  2.00145754 -0.67520076  2.12830132 -4.26201663 -2.16098798
  -5.47776803 -0.25227645  1.31263409  0.32776615 -0.13601245 -2.07702746
  -0.26985788  0.53675288 -3.35070681 -3.79831005 -1.296268    1.90046016]
 [ 0.82879737  3.00837734 -2.293046   -0.79389486  0.56112777 -0.90611492
  -0.07988582 -1.22906451 -1.75314591 -2.15403039  2.18330107  1.07608848
   2.17695824  1.86787885  1.75651377 -1.14774239 -2.84851588 -0.75660857
  -2.81672413 -0.46247485 -2.21078362  1.01975152 -1.30938743  0.71325332
  -2.91876222 -3.41304236  1.89678518  1.26298855  1.91017183 -0.91940656]
 [-1.81694223 -1.89997328  1.15007315  0.76566306 -2.32924148 -0.30771296
   3.00424623  0.79449229 -0.45445775 -0.39937363  1.68693901  2.8267042
  -1.97920943 -1.15322054 -3.97479239 -3.15870979  0.39948351 -2.22117622
  -0.42739795  2.49086465 -3.10686511 -2.21373605  0.56802999 -1.55043277
   0.38347181  2.24957001  0.06330721  2.11374002 -0.39642516 -1.38113775]
 [ 1.5127454  -3.01859639  0.65985025 -4.5145024  -2.0839133  -2.93149668
  -2.82488271 -1.40924779 -0.18229504  0.94999447  4.84058928 -1.55279992
  -3.03666767  2.46777829  3.77255223 -2.07825356 -1.73584506  0.52401136
   2.03188127 -1.8255563   1.15862335 -0.47345644  2.02081139 -2.02512967
   0.54330584 -2.96370763  0.97390957 -2.89273453 -0.68685442  0.36070291]
 [ 0.34280128 -0.12965381 -2.60218772 -2.36786314  3.16123384  0.23113515
  -4.3347008  -0.51469903  0.99343706  0.76991268 -0.97098722 -0.96649499
   1.84124132 -0.22880212 -3.96530621  2.78933251 -0.88622808  0.40763565
  -0.35289077 -0.91399182  2.04755193 -3.89457959  2.48116771 -0.07285548
  -0.76551006 -5.10598125  1.54691123  0.66136845 -1.48147189 -2.63834599]]
